<?xml version="1.0"?>
<opencv_storage>
<cascade>
  <stageType>BOOST</stageType>
  <featureType>HAAR</featureType>
  <height>15</height>
  <width>30</width>
  <stageParams>
    <boostType>GAB</boostType>
    <minHitRate>9.9500000476837158e-01</minHitRate>
    <maxFalseAlarm>5.0000000000000000e-01</maxFalseAlarm>
    <weightTrimRate>9.4999999999999996e-01</weightTrimRate>
    <maxDepth>1</maxDepth>
    <maxWeakCount>100</maxWeakCount></stageParams>
  <featureParams>
    <maxCatCount>0</maxCatCount>
    <featSize>1</featSize>
    <mode>BASIC</mode></featureParams>
  <stageNum>7</stageNum>
  <stages>
    <!-- stage 0 -->
    <_>
      <maxWeakCount>2</maxWeakCount>
      <stageThreshold>-1.4611975848674774e-01</stageThreshold>
      <weakClassifiers>
        <_>
          <internalNodes>
            0 -1 11 -6.8597987294197083e-02</internalNodes>
          <leafValues>
            8.3959227800369263e-01 -9.1986453533172607e-01</leafValues></_>
        <_>
          <internalNodes>
            0 -1 6 -2.8647089377045631e-02</internalNodes>
          <leafValues>
            7.7374482154846191e-01 -9.1712349653244019e-01</leafValues></_></weakClassifiers></_>
    <!-- stage 1 -->
    <_>
      <maxWeakCount>2</maxWeakCount>
      <stageThreshold>-1.7831198871135712e-01</stageThreshold>
      <weakClassifiers>
        <_>
          <internalNodes>
            0 -1 10 -2.2321191430091858e-01</internalNodes>
          <leafValues>
            8.7053942680358887e-01 -8.7374007701873779e-01</leafValues></_>
        <_>
          <internalNodes>
            0 -1 24 1.3546551577746868e-02</internalNodes>
          <leafValues>
            -8.7810117006301880e-01 6.9542807340621948e-01</leafValues></_></weakClassifiers></_>
    <!-- stage 2 -->
    <_>
      <maxWeakCount>3</maxWeakCount>
      <stageThreshold>-9.8111140727996826e-01</stageThreshold>
      <weakClassifiers>
        <_>
          <internalNodes>
            0 -1 2 -3.2257050275802612e-01</internalNodes>
          <leafValues>
            7.4895399808883667e-01 -8.1384247541427612e-01</leafValues></_>
        <_>
          <internalNodes>
            0 -1 3 -1.9176045060157776e-01</internalNodes>
          <leafValues>
            5.3772252798080444e-01 -8.9218932390213013e-01</leafValues></_>
        <_>
          <internalNodes>
            0 -1 0 -4.8723712563514709e-02</internalNodes>
          <leafValues>
            3.6114495992660522e-01 -8.3787608146667480e-01</leafValues></_></weakClassifiers></_>
    <!-- stage 3 -->
    <_>
      <maxWeakCount>5</maxWeakCount>
      <stageThreshold>-1.0190390348434448e+00</stageThreshold>
      <weakClassifiers>
        <_>
          <internalNodes>
            0 -1 23 2.0521875470876694e-02</internalNodes>
          <leafValues>
            -8.3895707130432129e-01 6.1820781230926514e-01</leafValues></_>
        <_>
          <internalNodes>
            0 -1 22 -1.0554674267768860e-01</internalNodes>
          <leafValues>
            4.6288955211639404e-01 -8.2836264371871948e-01</leafValues></_>
        <_>
          <internalNodes>
            0 -1 5 -2.8706479817628860e-02</internalNodes>
          <leafValues>
            4.7504660487174988e-01 -7.5518631935119629e-01</leafValues></_>
        <_>
          <internalNodes>
            0 -1 14 -3.7798620760440826e-02</internalNodes>
          <leafValues>
            3.4069779515266418e-01 -8.2799875736236572e-01</leafValues></_>
        <_>
          <internalNodes>
            0 -1 15 -5.2011832594871521e-03</internalNodes>
          <leafValues>
            7.1929627656936646e-01 -3.9439564943313599e-01</leafValues></_></weakClassifiers></_>
    <!-- stage 4 -->
    <_>
      <maxWeakCount>5</maxWeakCount>
      <stageThreshold>-4.3503037095069885e-01</stageThreshold>
      <weakClassifiers>
        <_>
          <internalNodes>
            0 -1 12 -2.2195284254848957e-03</internalNodes>
          <leafValues>
            5.8017224073410034e-01 -8.2543641328811646e-01</leafValues></_>
        <_>
          <internalNodes>
            0 -1 7 -3.7641718983650208e-02</internalNodes>
          <leafValues>
            3.8637933135032654e-01 -8.6074537038803101e-01</leafValues></_>
        <_>
          <internalNodes>
            0 -1 19 -5.8089168742299080e-03</internalNodes>
          <leafValues>
            3.8488692045211792e-01 -8.1863760948181152e-01</leafValues></_>
        <_>
          <internalNodes>
            0 -1 20 -1.4284595847129822e-02</internalNodes>
          <leafValues>
            2.6400437951087952e-01 -9.1071152687072754e-01</leafValues></_>
        <_>
          <internalNodes>
            0 -1 9 -4.6323135495185852e-01</internalNodes>
          <leafValues>
            5.5865997076034546e-01 -5.6186825037002563e-01</leafValues></_></weakClassifiers></_>
    <!-- stage 5 -->
    <_>
      <maxWeakCount>3</maxWeakCount>
      <stageThreshold>-1.8938350677490234e-01</stageThreshold>
      <weakClassifiers>
        <_>
          <internalNodes>
            0 -1 1 -8.0200834199786186e-03</internalNodes>
          <leafValues>
            5.9348440170288086e-01 -8.0221521854400635e-01</leafValues></_>
        <_>
          <internalNodes>
            0 -1 21 5.7443936384515837e-05</internalNodes>
          <leafValues>
            -7.9941332340240479e-01 3.4563535451889038e-01</leafValues></_>
        <_>
          <internalNodes>
            0 -1 25 5.5546624935232103e-05</internalNodes>
          <leafValues>
            -9.2565679550170898e-01 2.6719632744789124e-01</leafValues></_></weakClassifiers></_>
    <!-- stage 6 -->
    <_>
      <maxWeakCount>6</maxWeakCount>
      <stageThreshold>-9.1976839303970337e-01</stageThreshold>
      <weakClassifiers>
        <_>
          <internalNodes>
            0 -1 18 -1.0163232218474150e-03</internalNodes>
          <leafValues>
            -7.9341864585876465e-01 5.3744894266128540e-01</leafValues></_>
        <_>
          <internalNodes>
            0 -1 16 4.1165845468640327e-03</internalNodes>
          <leafValues>
            3.3276733756065369e-01 -8.9501082897186279e-01</leafValues></_>
        <_>
          <internalNodes>
            0 -1 17 -2.3165205493569374e-02</internalNodes>
          <leafValues>
            5.3383755683898926e-01 -4.7644963860511780e-01</leafValues></_>
        <_>
          <internalNodes>
            0 -1 4 7.1682715788483620e-03</internalNodes>
          <leafValues>
            -4.6733015775680542e-01 5.5710506439208984e-01</leafValues></_>
        <_>
          <internalNodes>
            0 -1 8 -6.4065016340464354e-04</internalNodes>
          <leafValues>
            -8.8814663887023926e-01 2.7858459949493408e-01</leafValues></_>
        <_>
          <internalNodes>
            0 -1 13 -7.3518960562068969e-05</internalNodes>
          <leafValues>
            2.0607812702655792e-01 -8.9091241359710693e-01</leafValues></_></weakClassifiers></_></stages>
  <features>
    <_>
      <rects>
        <_>
          0 0 8 13 -1.</_>
        <_>
          4 0 4 13 2.</_></rects>
      <tilted>0</tilted></_>
    <_>
      <rects>
        <_>
          0 0 10 6 -1.</_>
        <_>
          5 0 5 6 2.</_></rects>
      <tilted>0</tilted></_>
    <_>
      <rects>
        <_>
          0 2 27 10 -1.</_>
        <_>
          0 7 27 5 2.</_></rects>
      <tilted>0</tilted></_>
    <_>
      <rects>
        <_>
          0 4 30 11 -1.</_>
        <_>
          10 4 10 11 3.</_></rects>
      <tilted>0</tilted></_>
    <_>
      <rects>
        <_>
          0 8 3 6 -1.</_>
        <_>
          0 10 3 2 3.</_></rects>
      <tilted>0</tilted></_>
    <_>
      <rects>
        <_>
          0 8 8 4 -1.</_>
        <_>
          4 8 4 4 2.</_></rects>
      <tilted>0</tilted></_>
    <_>
      <rects>
        <_>
          0 9 10 5 -1.</_>
        <_>
          5 9 5 5 2.</_></rects>
      <tilted>0</tilted></_>
    <_>
      <rects>
        <_>
          0 9 10 6 -1.</_>
        <_>
          5 9 5 6 2.</_></rects>
      <tilted>0</tilted></_>
    <_>
      <rects>
        <_>
          1 0 1 4 -1.</_>
        <_>
          1 2 1 2 2.</_></rects>
      <tilted>0</tilted></_>
    <_>
      <rects>
        <_>
          1 1 28 10 -1.</_>
        <_>
          1 6 28 5 2.</_></rects>
      <tilted>0</tilted></_>
    <_>
      <rects>
        <_>
          3 3 27 8 -1.</_>
        <_>
          3 7 27 4 2.</_></rects>
      <tilted>0</tilted></_>
    <_>
      <rects>
        <_>
          4 5 21 9 -1.</_>
        <_>
          4 8 21 3 3.</_></rects>
      <tilted>0</tilted></_>
    <_>
      <rects>
        <_>
          5 6 5 2 -1.</_>
        <_>
          5 7 5 1 2.</_></rects>
      <tilted>0</tilted></_>
    <_>
      <rects>
        <_>
          5 12 2 3 -1.</_>
        <_>
          6 12 1 3 2.</_></rects>
      <tilted>0</tilted></_>
    <_>
      <rects>
        <_>
          8 6 9 9 -1.</_>
        <_>
          8 9 9 3 3.</_></rects>
      <tilted>0</tilted></_>
    <_>
      <rects>
        <_>
          10 3 8 3 -1.</_>
        <_>
          10 4 8 1 3.</_></rects>
      <tilted>0</tilted></_>
    <_>
      <rects>
        <_>
          11 13 12 2 -1.</_>
        <_>
          17 13 6 2 2.</_></rects>
      <tilted>0</tilted></_>
    <_>
      <rects>
        <_>
          12 2 7 4 -1.</_>
        <_>
          12 4 7 2 2.</_></rects>
      <tilted>0</tilted></_>
    <_>
      <rects>
        <_>
          12 14 14 1 -1.</_>
        <_>
          19 14 7 1 2.</_></rects>
      <tilted>0</tilted></_>
    <_>
      <rects>
        <_>
          15 7 9 2 -1.</_>
        <_>
          15 8 9 1 2.</_></rects>
      <tilted>0</tilted></_>
    <_>
      <rects>
        <_>
          15 10 15 5 -1.</_>
        <_>
          20 10 5 5 3.</_></rects>
      <tilted>0</tilted></_>
    <_>
      <rects>
        <_>
          16 12 4 2 -1.</_>
        <_>
          16 13 4 1 2.</_></rects>
      <tilted>0</tilted></_>
    <_>
      <rects>
        <_>
          17 3 12 8 -1.</_>
        <_>
          17 7 12 4 2.</_></rects>
      <tilted>0</tilted></_>
    <_>
      <rects>
        <_>
          24 0 6 13 -1.</_>
        <_>
          27 0 3 13 2.</_></rects>
      <tilted>0</tilted></_>
    <_>
      <rects>
        <_>
          24 9 6 6 -1.</_>
        <_>
          27 9 3 6 2.</_></rects>
      <tilted>0</tilted></_>
    <_>
      <rects>
        <_>
          28 12 2 3 -1.</_>
        <_>
          29 12 1 3 2.</_></rects>
      <tilted>0</tilted></_></features></cascade>
</opencv_storage>
