<?xml version="1.0"?>
<opencv_storage>
<cascade>
  <stageType>BOOST</stageType>
  <featureType>HAAR</featureType>
  <height>20</height>
  <width>35</width>
  <stageParams>
    <boostType>GAB</boostType>
    <minHitRate>9.9500000476837158e-01</minHitRate>
    <maxFalseAlarm>5.0000000000000000e-01</maxFalseAlarm>
    <weightTrimRate>9.4999999999999996e-01</weightTrimRate>
    <maxDepth>1</maxDepth>
    <maxWeakCount>100</maxWeakCount></stageParams>
  <featureParams>
    <maxCatCount>0</maxCatCount>
    <featSize>1</featSize>
    <mode>BASIC</mode></featureParams>
  <stageNum>13</stageNum>
  <stages>
    <!-- stage 0 -->
    <_>
      <maxWeakCount>2</maxWeakCount>
      <stageThreshold>-6.9563463330268860e-02</stageThreshold>
      <weakClassifiers>
        <_>
          <internalNodes>
            0 -1 29 -6.6797822713851929e-02</internalNodes>
          <leafValues>
            8.6103540658950806e-01 -9.0710383653640747e-01</leafValues></_>
        <_>
          <internalNodes>
            0 -1 10 -2.9127303510904312e-02</internalNodes>
          <leafValues>
            8.3754038810729980e-01 -8.6821842193603516e-01</leafValues></_></weakClassifiers></_>
    <!-- stage 1 -->
    <_>
      <maxWeakCount>2</maxWeakCount>
      <stageThreshold>-1.9783022999763489e-01</stageThreshold>
      <weakClassifiers>
        <_>
          <internalNodes>
            0 -1 19 -1.8477544188499451e-01</internalNodes>
          <leafValues>
            8.4984982013702393e-01 -8.7806206941604614e-01</leafValues></_>
        <_>
          <internalNodes>
            0 -1 61 1.3768527656793594e-02</internalNodes>
          <leafValues>
            -8.7504899501800537e-01 6.8023180961608887e-01</leafValues></_></weakClassifiers></_>
    <!-- stage 2 -->
    <_>
      <maxWeakCount>4</maxWeakCount>
      <stageThreshold>-4.6125009655952454e-01</stageThreshold>
      <weakClassifiers>
        <_>
          <internalNodes>
            0 -1 7 -3.0830854177474976e-01</internalNodes>
          <leafValues>
            7.1237993240356445e-01 -6.6780823469161987e-01</leafValues></_>
        <_>
          <internalNodes>
            0 -1 4 -7.0104718208312988e-02</internalNodes>
          <leafValues>
            5.6237924098968506e-01 -8.7298166751861572e-01</leafValues></_>
        <_>
          <internalNodes>
            0 -1 66 2.5122204795479774e-02</internalNodes>
          <leafValues>
            -6.4849996566772461e-01 5.1695603132247925e-01</leafValues></_>
        <_>
          <internalNodes>
            0 -1 52 -3.4632660448551178e-02</internalNodes>
          <leafValues>
            4.1273421049118042e-01 -8.1760442256927490e-01</leafValues></_></weakClassifiers></_>
    <!-- stage 3 -->
    <_>
      <maxWeakCount>3</maxWeakCount>
      <stageThreshold>-9.7342833876609802e-02</stageThreshold>
      <weakClassifiers>
        <_>
          <internalNodes>
            0 -1 8 -1.1696061491966248e-01</internalNodes>
          <leafValues>
            6.3449591398239136e-01 -8.7975645065307617e-01</leafValues></_>
        <_>
          <internalNodes>
            0 -1 22 -3.3906564116477966e-02</internalNodes>
          <leafValues>
            3.8979530334472656e-01 -8.7805372476577759e-01</leafValues></_>
        <_>
          <internalNodes>
            0 -1 65 1.9328556954860687e-02</internalNodes>
          <leafValues>
            -8.5825866460800171e-01 3.9261832833290100e-01</leafValues></_></weakClassifiers></_>
    <!-- stage 4 -->
    <_>
      <maxWeakCount>6</maxWeakCount>
      <stageThreshold>-9.4375663995742798e-01</stageThreshold>
      <weakClassifiers>
        <_>
          <internalNodes>
            0 -1 51 -1.8201407510787249e-03</internalNodes>
          <leafValues>
            6.0115051269531250e-01 -7.5903612375259399e-01</leafValues></_>
        <_>
          <internalNodes>
            0 -1 16 -2.3060653358697891e-02</internalNodes>
          <leafValues>
            4.7535398602485657e-01 -7.1510344743728638e-01</leafValues></_>
        <_>
          <internalNodes>
            0 -1 41 -1.4915084466338158e-02</internalNodes>
          <leafValues>
            7.2570908069610596e-01 -4.7742575407028198e-01</leafValues></_>
        <_>
          <internalNodes>
            0 -1 49 -1.4249655418097973e-02</internalNodes>
          <leafValues>
            3.1031581759452820e-01 -8.8221460580825806e-01</leafValues></_>
        <_>
          <internalNodes>
            0 -1 48 -1.2557747960090637e-01</internalNodes>
          <leafValues>
            3.7229666113853455e-01 -6.9651138782501221e-01</leafValues></_>
        <_>
          <internalNodes>
            0 -1 24 -3.8475314795505255e-05</internalNodes>
          <leafValues>
            2.0354689657688141e-01 -9.6273171901702881e-01</leafValues></_></weakClassifiers></_>
    <!-- stage 5 -->
    <_>
      <maxWeakCount>5</maxWeakCount>
      <stageThreshold>-9.5661801099777222e-01</stageThreshold>
      <weakClassifiers>
        <_>
          <internalNodes>
            0 -1 34 -1.1784669943153858e-02</internalNodes>
          <leafValues>
            5.7941520214080811e-01 -7.9755103588104248e-01</leafValues></_>
        <_>
          <internalNodes>
            0 -1 25 2.1075457334518433e-02</internalNodes>
          <leafValues>
            -4.3511828780174255e-01 5.8289092779159546e-01</leafValues></_>
        <_>
          <internalNodes>
            0 -1 2 -6.8711414933204651e-02</internalNodes>
          <leafValues>
            3.4076479077339172e-01 -7.3312687873840332e-01</leafValues></_>
        <_>
          <internalNodes>
            0 -1 58 -5.4500654339790344e-02</internalNodes>
          <leafValues>
            3.6826843023300171e-01 -7.1829771995544434e-01</leafValues></_>
        <_>
          <internalNodes>
            0 -1 14 5.2457731217145920e-03</internalNodes>
          <leafValues>
            -4.3298190832138062e-01 5.6904631853103638e-01</leafValues></_></weakClassifiers></_>
    <!-- stage 6 -->
    <_>
      <maxWeakCount>6</maxWeakCount>
      <stageThreshold>-1.2165948152542114e+00</stageThreshold>
      <weakClassifiers>
        <_>
          <internalNodes>
            0 -1 68 3.8423746445914730e-05</internalNodes>
          <leafValues>
            -8.2176166772842407e-01 5.0562292337417603e-01</leafValues></_>
        <_>
          <internalNodes>
            0 -1 21 -1.4083486981689930e-02</internalNodes>
          <leafValues>
            3.9530465006828308e-01 -6.3297194242477417e-01</leafValues></_>
        <_>
          <internalNodes>
            0 -1 60 3.7710128817707300e-03</internalNodes>
          <leafValues>
            -7.0264196395874023e-01 3.5190668702125549e-01</leafValues></_>
        <_>
          <internalNodes>
            0 -1 18 -3.0478125438094139e-02</internalNodes>
          <leafValues>
            2.1441619098186493e-01 -8.5962510108947754e-01</leafValues></_>
        <_>
          <internalNodes>
            0 -1 37 -6.8829546216875315e-04</internalNodes>
          <leafValues>
            -8.4751892089843750e-01 2.4133396148681641e-01</leafValues></_>
        <_>
          <internalNodes>
            0 -1 43 1.0239781113341451e-03</internalNodes>
          <leafValues>
            2.3168727755546570e-01 -8.3227759599685669e-01</leafValues></_></weakClassifiers></_>
    <!-- stage 7 -->
    <_>
      <maxWeakCount>7</maxWeakCount>
      <stageThreshold>-9.8260974884033203e-01</stageThreshold>
      <weakClassifiers>
        <_>
          <internalNodes>
            0 -1 6 -1.0801824927330017e-01</internalNodes>
          <leafValues>
            5.3238403797149658e-01 -7.1378707885742188e-01</leafValues></_>
        <_>
          <internalNodes>
            0 -1 3 -2.8089056722819805e-03</internalNodes>
          <leafValues>
            3.0986768007278442e-01 -8.0498307943344116e-01</leafValues></_>
        <_>
          <internalNodes>
            0 -1 70 1.2568940874189138e-03</internalNodes>
          <leafValues>
            -4.2866927385330200e-01 5.0072926282882690e-01</leafValues></_>
        <_>
          <internalNodes>
            0 -1 67 3.7233367038425058e-05</internalNodes>
          <leafValues>
            -8.4659993648529053e-01 2.5283804535865784e-01</leafValues></_>
        <_>
          <internalNodes>
            0 -1 56 2.8810434741899371e-04</internalNodes>
          <leafValues>
            -8.0466187000274658e-01 2.4280180037021637e-01</leafValues></_>
        <_>
          <internalNodes>
            0 -1 17 -3.7803824990987778e-02</internalNodes>
          <leafValues>
            1.9630283117294312e-01 -8.6411994695663452e-01</leafValues></_>
        <_>
          <internalNodes>
            0 -1 33 1.1958044487982988e-03</internalNodes>
          <leafValues>
            2.0549993216991425e-01 -8.7639248371124268e-01</leafValues></_></weakClassifiers></_>
    <!-- stage 8 -->
    <_>
      <maxWeakCount>6</maxWeakCount>
      <stageThreshold>-7.9129624366760254e-01</stageThreshold>
      <weakClassifiers>
        <_>
          <internalNodes>
            0 -1 5 -9.4630254898220301e-04</internalNodes>
          <leafValues>
            -8.8082337379455566e-01 5.0535285472869873e-01</leafValues></_>
        <_>
          <internalNodes>
            0 -1 15 5.4105408489704132e-03</internalNodes>
          <leafValues>
            -4.4191560149192810e-01 5.6871986389160156e-01</leafValues></_>
        <_>
          <internalNodes>
            0 -1 32 -1.9147116690874100e-02</internalNodes>
          <leafValues>
            -8.6241102218627930e-01 2.9187148809432983e-01</leafValues></_>
        <_>
          <internalNodes>
            0 -1 39 -2.0386852324008942e-02</internalNodes>
          <leafValues>
            6.5421420335769653e-01 -3.7104669213294983e-01</leafValues></_>
        <_>
          <internalNodes>
            0 -1 64 2.9460880905389786e-02</internalNodes>
          <leafValues>
            -5.4918396472930908e-01 4.2043659090995789e-01</leafValues></_>
        <_>
          <internalNodes>
            0 -1 27 -7.4517212808132172e-02</internalNodes>
          <leafValues>
            2.6336681842803955e-01 -8.3507955074310303e-01</leafValues></_></weakClassifiers></_>
    <!-- stage 9 -->
    <_>
      <maxWeakCount>8</maxWeakCount>
      <stageThreshold>-1.0377179384231567e+00</stageThreshold>
      <weakClassifiers>
        <_>
          <internalNodes>
            0 -1 44 -5.3624983411282301e-04</internalNodes>
          <leafValues>
            -7.7459013462066650e-01 4.9867373704910278e-01</leafValues></_>
        <_>
          <internalNodes>
            0 -1 47 9.5727399457246065e-04</internalNodes>
          <leafValues>
            2.4981135129928589e-01 -8.8832700252532959e-01</leafValues></_>
        <_>
          <internalNodes>
            0 -1 26 -5.1116910763084888e-03</internalNodes>
          <leafValues>
            5.8661526441574097e-01 -3.9110431075096130e-01</leafValues></_>
        <_>
          <internalNodes>
            0 -1 23 -3.6076460673939437e-05</internalNodes>
          <leafValues>
            2.7588278055191040e-01 -8.0724835395812988e-01</leafValues></_>
        <_>
          <internalNodes>
            0 -1 0 3.9819430094212294e-04</internalNodes>
          <leafValues>
            1.8948675692081451e-01 -9.0717655420303345e-01</leafValues></_>
        <_>
          <internalNodes>
            0 -1 12 6.9933580234646797e-03</internalNodes>
          <leafValues>
            -4.2462146282196045e-01 4.5539858937263489e-01</leafValues></_>
        <_>
          <internalNodes>
            0 -1 1 -9.9929631687700748e-04</internalNodes>
          <leafValues>
            -8.7843972444534302e-01 2.2007419168949127e-01</leafValues></_>
        <_>
          <internalNodes>
            0 -1 46 -1.9377935677766800e-02</internalNodes>
          <leafValues>
            7.1400624513626099e-01 -3.0288097262382507e-01</leafValues></_></weakClassifiers></_>
    <!-- stage 10 -->
    <_>
      <maxWeakCount>7</maxWeakCount>
      <stageThreshold>-8.2775878906250000e-01</stageThreshold>
      <weakClassifiers>
        <_>
          <internalNodes>
            0 -1 69 2.8425743803381920e-03</internalNodes>
          <leafValues>
            -1.7956098914146423e-01 7.3465639352798462e-01</leafValues></_>
        <_>
          <internalNodes>
            0 -1 30 3.2068250584416091e-04</internalNodes>
          <leafValues>
            -7.9658281803131104e-01 3.2978275418281555e-01</leafValues></_>
        <_>
          <internalNodes>
            0 -1 45 1.3479209737852216e-03</internalNodes>
          <leafValues>
            -3.1902593374252319e-01 6.7436850070953369e-01</leafValues></_>
        <_>
          <internalNodes>
            0 -1 20 -3.9589025080204010e-02</internalNodes>
          <leafValues>
            4.6252951025962830e-01 -4.9008303880691528e-01</leafValues></_>
        <_>
          <internalNodes>
            0 -1 50 3.7328143662307411e-05</internalNodes>
          <leafValues>
            -8.2352626323699951e-01 2.8009539842605591e-01</leafValues></_>
        <_>
          <internalNodes>
            0 -1 54 -2.6794273871928453e-03</internalNodes>
          <leafValues>
            2.0964723825454712e-01 -7.6419979333877563e-01</leafValues></_>
        <_>
          <internalNodes>
            0 -1 42 1.6503385268151760e-03</internalNodes>
          <leafValues>
            -2.9545691609382629e-01 7.7605110406875610e-01</leafValues></_></weakClassifiers></_>
    <!-- stage 11 -->
    <_>
      <maxWeakCount>7</maxWeakCount>
      <stageThreshold>-6.8663674592971802e-01</stageThreshold>
      <weakClassifiers>
        <_>
          <internalNodes>
            0 -1 63 1.2473608367145061e-03</internalNodes>
          <leafValues>
            -8.3902436494827271e-01 4.0382775664329529e-01</leafValues></_>
        <_>
          <internalNodes>
            0 -1 57 1.1300528421998024e-02</internalNodes>
          <leafValues>
            -3.4586662054061890e-01 5.9629094600677490e-01</leafValues></_>
        <_>
          <internalNodes>
            0 -1 40 -6.5283372532576323e-04</internalNodes>
          <leafValues>
            -8.1968015432357788e-01 3.0823788046836853e-01</leafValues></_>
        <_>
          <internalNodes>
            0 -1 28 -3.6402496334630996e-05</internalNodes>
          <leafValues>
            1.7783130705356598e-01 -7.5461465120315552e-01</leafValues></_>
        <_>
          <internalNodes>
            0 -1 13 5.0526014529168606e-03</internalNodes>
          <leafValues>
            -3.6707437038421631e-01 5.2805930376052856e-01</leafValues></_>
        <_>
          <internalNodes>
            0 -1 35 -7.4483407661318779e-04</internalNodes>
          <leafValues>
            -8.7139940261840820e-01 2.0466087758541107e-01</leafValues></_>
        <_>
          <internalNodes>
            0 -1 38 1.0159674566239119e-03</internalNodes>
          <leafValues>
            1.8560835719108582e-01 -8.3546924591064453e-01</leafValues></_></weakClassifiers></_>
    <!-- stage 12 -->
    <_>
      <maxWeakCount>8</maxWeakCount>
      <stageThreshold>-9.5901942253112793e-01</stageThreshold>
      <weakClassifiers>
        <_>
          <internalNodes>
            0 -1 9 -1.0262507945299149e-02</internalNodes>
          <leafValues>
            5.3353112936019897e-01 -4.8957055807113647e-01</leafValues></_>
        <_>
          <internalNodes>
            0 -1 59 -1.2786886096000671e-01</internalNodes>
          <leafValues>
            3.2214775681495667e-01 -6.3419479131698608e-01</leafValues></_>
        <_>
          <internalNodes>
            0 -1 11 2.7225881349295378e-03</internalNodes>
          <leafValues>
            -4.0731874108314514e-01 5.1279377937316895e-01</leafValues></_>
        <_>
          <internalNodes>
            0 -1 31 1.9674198701977730e-03</internalNodes>
          <leafValues>
            -2.7068316936492920e-01 7.0496636629104614e-01</leafValues></_>
        <_>
          <internalNodes>
            0 -1 36 2.2627324797213078e-03</internalNodes>
          <leafValues>
            -2.4838440120220184e-01 7.4811089038848877e-01</leafValues></_>
        <_>
          <internalNodes>
            0 -1 55 3.8783477066317573e-05</internalNodes>
          <leafValues>
            -6.2938880920410156e-01 3.1905278563499451e-01</leafValues></_>
        <_>
          <internalNodes>
            0 -1 62 4.1765459172893316e-05</internalNodes>
          <leafValues>
            -8.8348817825317383e-01 1.6127093136310577e-01</leafValues></_>
        <_>
          <internalNodes>
            0 -1 53 3.9411103352904320e-03</internalNodes>
          <leafValues>
            -3.1720501184463501e-01 5.9105759859085083e-01</leafValues></_></weakClassifiers></_></stages>
  <features>
    <_>
      <rects>
        <_>
          0 0 4 3 -1.</_>
        <_>
          2 0 2 3 2.</_></rects>
      <tilted>0</tilted></_>
    <_>
      <rects>
        <_>
          0 0 6 4 -1.</_>
        <_>
          2 0 2 4 3.</_></rects>
      <tilted>0</tilted></_>
    <_>
      <rects>
        <_>
          0 0 10 20 -1.</_>
        <_>
          5 0 5 20 2.</_></rects>
      <tilted>0</tilted></_>
    <_>
      <rects>
        <_>
          0 0 21 6 -1.</_>
        <_>
          7 0 7 6 3.</_></rects>
      <tilted>0</tilted></_>
    <_>
      <rects>
        <_>
          0 0 14 17 -1.</_>
        <_>
          7 0 7 17 2.</_></rects>
      <tilted>0</tilted></_>
    <_>
      <rects>
        <_>
          0 1 3 4 -1.</_>
        <_>
          0 3 3 2 2.</_></rects>
      <tilted>0</tilted></_>
    <_>
      <rects>
        <_>
          0 1 12 16 -1.</_>
        <_>
          0 9 12 8 2.</_></rects>
      <tilted>0</tilted></_>
    <_>
      <rects>
        <_>
          0 3 33 12 -1.</_>
        <_>
          0 9 33 6 2.</_></rects>
      <tilted>0</tilted></_>
    <_>
      <rects>
        <_>
          0 5 33 15 -1.</_>
        <_>
          11 5 11 15 3.</_></rects>
      <tilted>0</tilted></_>
    <_>
      <rects>
        <_>
          0 7 6 6 -1.</_>
        <_>
          3 7 3 6 2.</_></rects>
      <tilted>0</tilted></_>
    <_>
      <rects>
        <_>
          0 9 10 8 -1.</_>
        <_>
          5 9 5 8 2.</_></rects>
      <tilted>0</tilted></_>
    <_>
      <rects>
        <_>
          0 10 1 9 -1.</_>
        <_>
          0 13 1 3 3.</_></rects>
      <tilted>0</tilted></_>
    <_>
      <rects>
        <_>
          0 10 2 9 -1.</_>
        <_>
          0 13 2 3 3.</_></rects>
      <tilted>0</tilted></_>
    <_>
      <rects>
        <_>
          0 10 3 6 -1.</_>
        <_>
          0 12 3 2 3.</_></rects>
      <tilted>0</tilted></_>
    <_>
      <rects>
        <_>
          0 11 3 6 -1.</_>
        <_>
          0 13 3 2 3.</_></rects>
      <tilted>0</tilted></_>
    <_>
      <rects>
        <_>
          0 11 4 6 -1.</_>
        <_>
          0 13 4 2 3.</_></rects>
      <tilted>0</tilted></_>
    <_>
      <rects>
        <_>
          0 12 10 4 -1.</_>
        <_>
          5 12 5 4 2.</_></rects>
      <tilted>0</tilted></_>
    <_>
      <rects>
        <_>
          0 12 24 8 -1.</_>
        <_>
          8 12 8 8 3.</_></rects>
      <tilted>0</tilted></_>
    <_>
      <rects>
        <_>
          0 12 24 4 -1.</_>
        <_>
          12 12 12 4 2.</_></rects>
      <tilted>0</tilted></_>
    <_>
      <rects>
        <_>
          2 4 32 10 -1.</_>
        <_>
          2 9 32 5 2.</_></rects>
      <tilted>0</tilted></_>
    <_>
      <rects>
        <_>
          3 2 19 6 -1.</_>
        <_>
          3 5 19 3 2.</_></rects>
      <tilted>0</tilted></_>
    <_>
      <rects>
        <_>
          3 4 3 8 -1.</_>
        <_>
          3 8 3 4 2.</_></rects>
      <tilted>0</tilted></_>
    <_>
      <rects>
        <_>
          3 5 9 8 -1.</_>
        <_>
          3 9 9 4 2.</_></rects>
      <tilted>0</tilted></_>
    <_>
      <rects>
        <_>
          3 17 2 3 -1.</_>
        <_>
          4 17 1 3 2.</_></rects>
      <tilted>0</tilted></_>
    <_>
      <rects>
        <_>
          4 19 6 1 -1.</_>
        <_>
          7 19 3 1 2.</_></rects>
      <tilted>0</tilted></_>
    <_>
      <rects>
        <_>
          7 0 23 6 -1.</_>
        <_>
          7 2 23 2 3.</_></rects>
      <tilted>0</tilted></_>
    <_>
      <rects>
        <_>
          7 4 21 3 -1.</_>
        <_>
          7 5 21 1 3.</_></rects>
      <tilted>0</tilted></_>
    <_>
      <rects>
        <_>
          8 6 16 8 -1.</_>
        <_>
          8 10 16 4 2.</_></rects>
      <tilted>0</tilted></_>
    <_>
      <rects>
        <_>
          8 11 1 2 -1.</_>
        <_>
          8 12 1 1 2.</_></rects>
      <tilted>0</tilted></_>
    <_>
      <rects>
        <_>
          9 7 19 12 -1.</_>
        <_>
          9 11 19 4 3.</_></rects>
      <tilted>0</tilted></_>
    <_>
      <rects>
        <_>
          9 15 7 4 -1.</_>
        <_>
          9 17 7 2 2.</_></rects>
      <tilted>0</tilted></_>
    <_>
      <rects>
        <_>
          10 4 3 7 -1.</_>
        <_>
          11 4 1 7 3.</_></rects>
      <tilted>0</tilted></_>
    <_>
      <rects>
        <_>
          10 13 18 7 -1.</_>
        <_>
          16 13 6 7 3.</_></rects>
      <tilted>0</tilted></_>
    <_>
      <rects>
        <_>
          10 19 14 1 -1.</_>
        <_>
          17 19 7 1 2.</_></rects>
      <tilted>0</tilted></_>
    <_>
      <rects>
        <_>
          11 9 8 9 -1.</_>
        <_>
          11 12 8 3 3.</_></rects>
      <tilted>0</tilted></_>
    <_>
      <rects>
        <_>
          12 0 10 1 -1.</_>
        <_>
          17 0 5 1 2.</_></rects>
      <tilted>0</tilted></_>
    <_>
      <rects>
        <_>
          12 6 3 7 -1.</_>
        <_>
          13 6 1 7 3.</_></rects>
      <tilted>0</tilted></_>
    <_>
      <rects>
        <_>
          12 19 20 1 -1.</_>
        <_>
          22 19 10 1 2.</_></rects>
      <tilted>0</tilted></_>
    <_>
      <rects>
        <_>
          13 0 10 1 -1.</_>
        <_>
          18 0 5 1 2.</_></rects>
      <tilted>0</tilted></_>
    <_>
      <rects>
        <_>
          13 3 9 4 -1.</_>
        <_>
          13 5 9 2 2.</_></rects>
      <tilted>0</tilted></_>
    <_>
      <rects>
        <_>
          14 0 8 2 -1.</_>
        <_>
          14 1 8 1 2.</_></rects>
      <tilted>0</tilted></_>
    <_>
      <rects>
        <_>
          14 3 9 4 -1.</_>
        <_>
          14 5 9 2 2.</_></rects>
      <tilted>0</tilted></_>
    <_>
      <rects>
        <_>
          14 6 3 5 -1.</_>
        <_>
          15 6 1 5 3.</_></rects>
      <tilted>0</tilted></_>
    <_>
      <rects>
        <_>
          14 19 12 1 -1.</_>
        <_>
          20 19 6 1 2.</_></rects>
      <tilted>0</tilted></_>
    <_>
      <rects>
        <_>
          15 19 10 1 -1.</_>
        <_>
          20 19 5 1 2.</_></rects>
      <tilted>0</tilted></_>
    <_>
      <rects>
        <_>
          16 5 3 5 -1.</_>
        <_>
          17 5 1 5 3.</_></rects>
      <tilted>0</tilted></_>
    <_>
      <rects>
        <_>
          16 5 9 7 -1.</_>
        <_>
          19 5 3 7 3.</_></rects>
      <tilted>0</tilted></_>
    <_>
      <rects>
        <_>
          16 19 10 1 -1.</_>
        <_>
          21 19 5 1 2.</_></rects>
      <tilted>0</tilted></_>
    <_>
      <rects>
        <_>
          17 4 18 10 -1.</_>
        <_>
          17 9 18 5 2.</_></rects>
      <tilted>0</tilted></_>
    <_>
      <rects>
        <_>
          17 13 18 7 -1.</_>
        <_>
          23 13 6 7 3.</_></rects>
      <tilted>0</tilted></_>
    <_>
      <rects>
        <_>
          17 19 14 1 -1.</_>
        <_>
          24 19 7 1 2.</_></rects>
      <tilted>0</tilted></_>
    <_>
      <rects>
        <_>
          18 10 8 2 -1.</_>
        <_>
          18 11 8 1 2.</_></rects>
      <tilted>0</tilted></_>
    <_>
      <rects>
        <_>
          19 6 8 8 -1.</_>
        <_>
          19 10 8 4 2.</_></rects>
      <tilted>0</tilted></_>
    <_>
      <rects>
        <_>
          19 8 6 6 -1.</_>
        <_>
          21 8 2 6 3.</_></rects>
      <tilted>0</tilted></_>
    <_>
      <rects>
        <_>
          19 9 9 2 -1.</_>
        <_>
          19 10 9 1 2.</_></rects>
      <tilted>0</tilted></_>
    <_>
      <rects>
        <_>
          19 15 2 2 -1.</_>
        <_>
          19 16 2 1 2.</_></rects>
      <tilted>0</tilted></_>
    <_>
      <rects>
        <_>
          19 15 5 4 -1.</_>
        <_>
          19 17 5 2 2.</_></rects>
      <tilted>0</tilted></_>
    <_>
      <rects>
        <_>
          20 6 12 3 -1.</_>
        <_>
          24 6 4 3 3.</_></rects>
      <tilted>0</tilted></_>
    <_>
      <rects>
        <_>
          22 5 12 8 -1.</_>
        <_>
          22 9 12 4 2.</_></rects>
      <tilted>0</tilted></_>
    <_>
      <rects>
        <_>
          24 0 7 20 -1.</_>
        <_>
          24 10 7 10 2.</_></rects>
      <tilted>0</tilted></_>
    <_>
      <rects>
        <_>
          25 2 10 5 -1.</_>
        <_>
          30 2 5 5 2.</_></rects>
      <tilted>0</tilted></_>
    <_>
      <rects>
        <_>
          27 13 8 7 -1.</_>
        <_>
          31 13 4 7 2.</_></rects>
      <tilted>0</tilted></_>
    <_>
      <rects>
        <_>
          28 19 4 1 -1.</_>
        <_>
          30 19 2 1 2.</_></rects>
      <tilted>0</tilted></_>
    <_>
      <rects>
        <_>
          29 0 6 9 -1.</_>
        <_>
          32 0 3 9 2.</_></rects>
      <tilted>0</tilted></_>
    <_>
      <rects>
        <_>
          29 2 6 15 -1.</_>
        <_>
          32 2 3 15 2.</_></rects>
      <tilted>0</tilted></_>
    <_>
      <rects>
        <_>
          29 3 6 17 -1.</_>
        <_>
          32 3 3 17 2.</_></rects>
      <tilted>0</tilted></_>
    <_>
      <rects>
        <_>
          29 6 6 11 -1.</_>
        <_>
          32 6 3 11 2.</_></rects>
      <tilted>0</tilted></_>
    <_>
      <rects>
        <_>
          31 18 2 2 -1.</_>
        <_>
          32 18 1 2 2.</_></rects>
      <tilted>0</tilted></_>
    <_>
      <rects>
        <_>
          33 16 2 4 -1.</_>
        <_>
          34 16 1 4 2.</_></rects>
      <tilted>0</tilted></_>
    <_>
      <rects>
        <_>
          34 10 1 9 -1.</_>
        <_>
          34 13 1 3 3.</_></rects>
      <tilted>0</tilted></_>
    <_>
      <rects>
        <_>
          34 11 1 6 -1.</_>
        <_>
          34 13 1 2 3.</_></rects>
      <tilted>0</tilted></_></features></cascade>
</opencv_storage>
