<?xml version="1.0"?>
<opencv_storage>
<cascade>
  <stageType>BOOST</stageType>
  <featureType>HAAR</featureType>
  <height>20</height>
  <width>35</width>
  <stageParams>
    <boostType>GAB</boostType>
    <minHitRate>9.9500000476837158e-01</minHitRate>
    <maxFalseAlarm>5.0000000000000000e-01</maxFalseAlarm>
    <weightTrimRate>9.4999999999999996e-01</weightTrimRate>
    <maxDepth>1</maxDepth>
    <maxWeakCount>100</maxWeakCount></stageParams>
  <featureParams>
    <maxCatCount>0</maxCatCount>
    <featSize>1</featSize>
    <mode>BASIC</mode></featureParams>
  <stageNum>15</stageNum>
  <stages>
    <!-- stage 0 -->
    <_>
      <maxWeakCount>2</maxWeakCount>
      <stageThreshold>-1.2588348239660263e-02</stageThreshold>
      <weakClassifiers>
        <_>
          <internalNodes>
            0 -1 10 -1.6778729856014252e-02</internalNodes>
          <leafValues>
            9.1047710180282593e-01 -8.8004136085510254e-01</leafValues></_>
        <_>
          <internalNodes>
            0 -1 13 -1.5497943758964539e-01</internalNodes>
          <leafValues>
            8.6745303869247437e-01 -9.0353775024414063e-01</leafValues></_></weakClassifiers></_>
    <!-- stage 1 -->
    <_>
      <maxWeakCount>2</maxWeakCount>
      <stageThreshold>-7.7416062355041504e-02</stageThreshold>
      <weakClassifiers>
        <_>
          <internalNodes>
            0 -1 63 2.0337454974651337e-02</internalNodes>
          <leafValues>
            -8.6471253633499146e-01 8.3625179529190063e-01</leafValues></_>
        <_>
          <internalNodes>
            0 -1 44 -1.0595779865980148e-01</internalNodes>
          <leafValues>
            8.0277383327484131e-01 -9.1366785764694214e-01</leafValues></_></weakClassifiers></_>
    <!-- stage 2 -->
    <_>
      <maxWeakCount>3</maxWeakCount>
      <stageThreshold>2.0639677345752716e-01</stageThreshold>
      <weakClassifiers>
        <_>
          <internalNodes>
            0 -1 18 -5.0172515213489532e-02</internalNodes>
          <leafValues>
            7.4426805973052979e-01 -9.3989068269729614e-01</leafValues></_>
        <_>
          <internalNodes>
            0 -1 4 -1.4235603809356689e-01</internalNodes>
          <leafValues>
            5.6696724891662598e-01 -8.7706482410430908e-01</leafValues></_>
        <_>
          <internalNodes>
            0 -1 53 -7.0023879408836365e-02</internalNodes>
          <leafValues>
            5.7932019233703613e-01 -8.4187799692153931e-01</leafValues></_></weakClassifiers></_>
    <!-- stage 3 -->
    <_>
      <maxWeakCount>5</maxWeakCount>
      <stageThreshold>-5.7927548885345459e-01</stageThreshold>
      <weakClassifiers>
        <_>
          <internalNodes>
            0 -1 64 2.3409187793731689e-02</internalNodes>
          <leafValues>
            -7.9217875003814697e-01 8.1187647581100464e-01</leafValues></_>
        <_>
          <internalNodes>
            0 -1 2 -1.5477769076824188e-02</internalNodes>
          <leafValues>
            6.6954219341278076e-01 -7.7303159236907959e-01</leafValues></_>
        <_>
          <internalNodes>
            0 -1 45 -3.7123427318874747e-05</internalNodes>
          <leafValues>
            3.5616651177406311e-01 -9.4758784770965576e-01</leafValues></_>
        <_>
          <internalNodes>
            0 -1 40 -8.6436606943607330e-04</internalNodes>
          <leafValues>
            3.2469835877418518e-01 -9.0248781442642212e-01</leafValues></_>
        <_>
          <internalNodes>
            0 -1 25 -8.6652330355718732e-04</internalNodes>
          <leafValues>
            -9.2798638343811035e-01 3.0507001280784607e-01</leafValues></_></weakClassifiers></_>
    <!-- stage 4 -->
    <_>
      <maxWeakCount>3</maxWeakCount>
      <stageThreshold>-8.5763126611709595e-01</stageThreshold>
      <weakClassifiers>
        <_>
          <internalNodes>
            0 -1 6 -1.3854987919330597e-02</internalNodes>
          <leafValues>
            7.6686555147171021e-01 -8.1729596853256226e-01</leafValues></_>
        <_>
          <internalNodes>
            0 -1 46 7.6632704585790634e-03</internalNodes>
          <leafValues>
            -6.0222685337066650e-01 6.9301587343215942e-01</leafValues></_>
        <_>
          <internalNodes>
            0 -1 65 2.7164358645677567e-02</internalNodes>
          <leafValues>
            -6.4324307441711426e-01 5.6189155578613281e-01</leafValues></_></weakClassifiers></_>
    <!-- stage 5 -->
    <_>
      <maxWeakCount>6</maxWeakCount>
      <stageThreshold>-5.9555029869079590e-01</stageThreshold>
      <weakClassifiers>
        <_>
          <internalNodes>
            0 -1 1 -5.9377448633313179e-03</internalNodes>
          <leafValues>
            6.2005949020385742e-01 -7.0942813158035278e-01</leafValues></_>
        <_>
          <internalNodes>
            0 -1 15 -3.3187419176101685e-01</internalNodes>
          <leafValues>
            5.1323032379150391e-01 -6.1114662885665894e-01</leafValues></_>
        <_>
          <internalNodes>
            0 -1 68 1.0902067646384239e-02</internalNodes>
          <leafValues>
            -7.0653712749481201e-01 5.2104181051254272e-01</leafValues></_>
        <_>
          <internalNodes>
            0 -1 8 -1.5724916011095047e-02</internalNodes>
          <leafValues>
            7.2600847482681274e-01 -4.9783006310462952e-01</leafValues></_>
        <_>
          <internalNodes>
            0 -1 54 7.4316803365945816e-03</internalNodes>
          <leafValues>
            -5.8969295024871826e-01 4.7709733247756958e-01</leafValues></_>
        <_>
          <internalNodes>
            0 -1 29 -7.1118166670203209e-04</internalNodes>
          <leafValues>
            -9.6575897932052612e-01 2.2471538186073303e-01</leafValues></_></weakClassifiers></_>
    <!-- stage 6 -->
    <_>
      <maxWeakCount>5</maxWeakCount>
      <stageThreshold>-3.4527373313903809e-01</stageThreshold>
      <weakClassifiers>
        <_>
          <internalNodes>
            0 -1 0 -4.3222561478614807e-02</internalNodes>
          <leafValues>
            6.1191487312316895e-01 -6.7384612560272217e-01</leafValues></_>
        <_>
          <internalNodes>
            0 -1 46 9.8812496289610863e-03</internalNodes>
          <leafValues>
            -5.5317866802215576e-01 5.5774796009063721e-01</leafValues></_>
        <_>
          <internalNodes>
            0 -1 14 -1.7817972600460052e-01</internalNodes>
          <leafValues>
            3.9193868637084961e-01 -7.3449122905731201e-01</leafValues></_>
        <_>
          <internalNodes>
            0 -1 66 3.5254794056527317e-05</internalNodes>
          <leafValues>
            -9.4022178649902344e-01 2.7914831042289734e-01</leafValues></_>
        <_>
          <internalNodes>
            0 -1 27 1.7687076469883323e-03</internalNodes>
          <leafValues>
            2.1066410839557648e-01 -8.9380472898483276e-01</leafValues></_></weakClassifiers></_>
    <!-- stage 7 -->
    <_>
      <maxWeakCount>5</maxWeakCount>
      <stageThreshold>-9.9632376432418823e-01</stageThreshold>
      <weakClassifiers>
        <_>
          <internalNodes>
            0 -1 28 -5.9175852220505476e-04</internalNodes>
          <leafValues>
            -8.6666667461395264e-01 5.9674799442291260e-01</leafValues></_>
        <_>
          <internalNodes>
            0 -1 59 3.7794774398207664e-03</internalNodes>
          <leafValues>
            -7.1342760324478149e-01 4.1776666045188904e-01</leafValues></_>
        <_>
          <internalNodes>
            0 -1 7 7.0148156955838203e-03</internalNodes>
          <leafValues>
            -4.9885788559913635e-01 5.7110929489135742e-01</leafValues></_>
        <_>
          <internalNodes>
            0 -1 39 1.8833477515727282e-03</internalNodes>
          <leafValues>
            3.1206762790679932e-01 -8.9192789793014526e-01</leafValues></_>
        <_>
          <internalNodes>
            0 -1 70 1.6770442016422749e-03</internalNodes>
          <leafValues>
            -6.2005257606506348e-01 4.5296898484230042e-01</leafValues></_></weakClassifiers></_>
    <!-- stage 8 -->
    <_>
      <maxWeakCount>6</maxWeakCount>
      <stageThreshold>-6.2199461460113525e-01</stageThreshold>
      <weakClassifiers>
        <_>
          <internalNodes>
            0 -1 47 7.5612668297253549e-05</internalNodes>
          <leafValues>
            -7.0847457647323608e-01 5.8838176727294922e-01</leafValues></_>
        <_>
          <internalNodes>
            0 -1 17 -3.1510095141129568e-05</internalNodes>
          <leafValues>
            3.6036947369575500e-01 -8.3963567018508911e-01</leafValues></_>
        <_>
          <internalNodes>
            0 -1 41 1.1501910630613565e-03</internalNodes>
          <leafValues>
            -4.2333567142486572e-01 7.0102363824844360e-01</leafValues></_>
        <_>
          <internalNodes>
            0 -1 11 -2.7755682822316885e-04</internalNodes>
          <leafValues>
            3.2040452957153320e-01 -8.5581725835800171e-01</leafValues></_>
        <_>
          <internalNodes>
            0 -1 71 3.8254894316196442e-03</internalNodes>
          <leafValues>
            -5.0927412509918213e-01 5.4251927137374878e-01</leafValues></_>
        <_>
          <internalNodes>
            0 -1 23 -3.3820513635873795e-03</internalNodes>
          <leafValues>
            3.7552797794342041e-01 -7.1347767114639282e-01</leafValues></_></weakClassifiers></_>
    <!-- stage 9 -->
    <_>
      <maxWeakCount>5</maxWeakCount>
      <stageThreshold>-3.6390823125839233e-01</stageThreshold>
      <weakClassifiers>
        <_>
          <internalNodes>
            0 -1 12 -2.4956749752163887e-02</internalNodes>
          <leafValues>
            6.5919703245162964e-01 -4.8018649220466614e-01</leafValues></_>
        <_>
          <internalNodes>
            0 -1 50 1.4427126385271549e-02</internalNodes>
          <leafValues>
            -4.6507453918457031e-01 5.7559573650360107e-01</leafValues></_>
        <_>
          <internalNodes>
            0 -1 26 -5.0755741540342569e-04</internalNodes>
          <leafValues>
            -9.1083782911300659e-01 2.9958206415176392e-01</leafValues></_>
        <_>
          <internalNodes>
            0 -1 37 5.9388979570940137e-04</internalNodes>
          <leafValues>
            2.5359404087066650e-01 -8.8952237367630005e-01</leafValues></_>
        <_>
          <internalNodes>
            0 -1 43 5.3992699831724167e-02</internalNodes>
          <leafValues>
            -9.0586328506469727e-01 1.9792623817920685e-01</leafValues></_></weakClassifiers></_>
    <!-- stage 10 -->
    <_>
      <maxWeakCount>7</maxWeakCount>
      <stageThreshold>-8.7156349420547485e-01</stageThreshold>
      <weakClassifiers>
        <_>
          <internalNodes>
            0 -1 35 -5.3619116079062223e-04</internalNodes>
          <leafValues>
            -7.5889325141906738e-01 5.5493181943893433e-01</leafValues></_>
        <_>
          <internalNodes>
            0 -1 9 4.3497970327734947e-03</internalNodes>
          <leafValues>
            -4.5116385817527771e-01 5.9482038021087646e-01</leafValues></_>
        <_>
          <internalNodes>
            0 -1 58 -2.0229637622833252e-02</internalNodes>
          <leafValues>
            5.3638863563537598e-01 -4.5693224668502808e-01</leafValues></_>
        <_>
          <internalNodes>
            0 -1 30 -1.8378272652626038e-02</internalNodes>
          <leafValues>
            6.7003178596496582e-01 -3.7323242425918579e-01</leafValues></_>
        <_>
          <internalNodes>
            0 -1 33 1.7623506486415863e-02</internalNodes>
          <leafValues>
            -3.6645910143852234e-01 6.4473438262939453e-01</leafValues></_>
        <_>
          <internalNodes>
            0 -1 69 4.4168082240503281e-05</internalNodes>
          <leafValues>
            -8.8603687286376953e-01 3.1895565986633301e-01</leafValues></_>
        <_>
          <internalNodes>
            0 -1 21 -1.2886357307434082e-01</internalNodes>
          <leafValues>
            2.1806964278221130e-01 -8.2042330503463745e-01</leafValues></_></weakClassifiers></_>
    <!-- stage 11 -->
    <_>
      <maxWeakCount>7</maxWeakCount>
      <stageThreshold>-5.7910013198852539e-01</stageThreshold>
      <weakClassifiers>
        <_>
          <internalNodes>
            0 -1 5 -1.4489419758319855e-02</internalNodes>
          <leafValues>
            5.6188923120498657e-01 -6.9852942228317261e-01</leafValues></_>
        <_>
          <internalNodes>
            0 -1 60 3.5013974411413074e-05</internalNodes>
          <leafValues>
            -7.9728209972381592e-01 3.1606635451316833e-01</leafValues></_>
        <_>
          <internalNodes>
            0 -1 61 -3.5070486366748810e-02</internalNodes>
          <leafValues>
            3.0529057979583740e-01 -7.2579997777938843e-01</leafValues></_>
        <_>
          <internalNodes>
            0 -1 42 2.1296734921634197e-03</internalNodes>
          <leafValues>
            -3.7314054369926453e-01 6.7202955484390259e-01</leafValues></_>
        <_>
          <internalNodes>
            0 -1 57 -2.6394831947982311e-03</internalNodes>
          <leafValues>
            4.2443895339965820e-01 -5.3248965740203857e-01</leafValues></_>
        <_>
          <internalNodes>
            0 -1 67 3.5453442251309752e-05</internalNodes>
          <leafValues>
            -7.6911091804504395e-01 2.9218837618827820e-01</leafValues></_>
        <_>
          <internalNodes>
            0 -1 3 -3.7314957007765770e-03</internalNodes>
          <leafValues>
            2.6793399453163147e-01 -7.8191632032394409e-01</leafValues></_></weakClassifiers></_>
    <!-- stage 12 -->
    <_>
      <maxWeakCount>6</maxWeakCount>
      <stageThreshold>-6.5047335624694824e-01</stageThreshold>
      <weakClassifiers>
        <_>
          <internalNodes>
            0 -1 32 1.9256391096860170e-03</internalNodes>
          <leafValues>
            5.5140930414199829e-01 -8.0873179435729980e-01</leafValues></_>
        <_>
          <internalNodes>
            0 -1 24 1.9872928969562054e-03</internalNodes>
          <leafValues>
            -7.9319381713867188e-01 3.7002831697463989e-01</leafValues></_>
        <_>
          <internalNodes>
            0 -1 56 -3.1434246338903904e-03</internalNodes>
          <leafValues>
            5.2476060390472412e-01 -4.9059188365936279e-01</leafValues></_>
        <_>
          <internalNodes>
            0 -1 52 -1.3328891992568970e-01</internalNodes>
          <leafValues>
            3.5771667957305908e-01 -6.6207444667816162e-01</leafValues></_>
        <_>
          <internalNodes>
            0 -1 22 9.4150453805923462e-03</internalNodes>
          <leafValues>
            -3.0942663550376892e-01 7.2856241464614868e-01</leafValues></_>
        <_>
          <internalNodes>
            0 -1 20 -4.3969778926111758e-04</internalNodes>
          <leafValues>
            2.3053194582462311e-01 -9.5994281768798828e-01</leafValues></_></weakClassifiers></_>
    <!-- stage 13 -->
    <_>
      <maxWeakCount>6</maxWeakCount>
      <stageThreshold>-5.6125617027282715e-01</stageThreshold>
      <weakClassifiers>
        <_>
          <internalNodes>
            0 -1 16 -3.6153771361568943e-05</internalNodes>
          <leafValues>
            5.2637660503387451e-01 -9.1066998243331909e-01</leafValues></_>
        <_>
          <internalNodes>
            0 -1 49 1.7845612019300461e-03</internalNodes>
          <leafValues>
            -4.3802860379219055e-01 5.4429429769515991e-01</leafValues></_>
        <_>
          <internalNodes>
            0 -1 36 7.8185577876865864e-05</internalNodes>
          <leafValues>
            -6.0899364948272705e-01 4.0430137515068054e-01</leafValues></_>
        <_>
          <internalNodes>
            0 -1 34 4.9849913921207190e-04</internalNodes>
          <leafValues>
            2.2118456661701202e-01 -9.0654456615447998e-01</leafValues></_>
        <_>
          <internalNodes>
            0 -1 55 -8.1919063813984394e-04</internalNodes>
          <leafValues>
            2.1191686391830444e-01 -8.1675469875335693e-01</leafValues></_>
        <_>
          <internalNodes>
            0 -1 72 1.4008258003741503e-03</internalNodes>
          <leafValues>
            -4.5833539962768555e-01 4.3992197513580322e-01</leafValues></_></weakClassifiers></_>
    <!-- stage 14 -->
    <_>
      <maxWeakCount>7</maxWeakCount>
      <stageThreshold>-6.6444200277328491e-01</stageThreshold>
      <weakClassifiers>
        <_>
          <internalNodes>
            0 -1 48 -4.8617168795317411e-04</internalNodes>
          <leafValues>
            -8.4691357612609863e-01 5.1753371953964233e-01</leafValues></_>
        <_>
          <internalNodes>
            0 -1 62 8.2573983818292618e-03</internalNodes>
          <leafValues>
            -6.6693496704101563e-01 3.5700494050979614e-01</leafValues></_>
        <_>
          <internalNodes>
            0 -1 19 -7.6041527790948749e-04</internalNodes>
          <leafValues>
            5.6613165140151978e-01 -3.9508435130119324e-01</leafValues></_>
        <_>
          <internalNodes>
            0 -1 51 -5.6947541452245787e-05</internalNodes>
          <leafValues>
            -8.0382406711578369e-01 2.6440280675888062e-01</leafValues></_>
        <_>
          <internalNodes>
            0 -1 38 1.6949968994595110e-04</internalNodes>
          <leafValues>
            -8.0067110061645508e-01 2.6115733385086060e-01</leafValues></_>
        <_>
          <internalNodes>
            0 -1 31 -6.2464352231472731e-04</internalNodes>
          <leafValues>
            -9.7305303812026978e-01 1.7712543904781342e-01</leafValues></_>
        <_>
          <internalNodes>
            0 -1 73 3.5310720559209585e-03</internalNodes>
          <leafValues>
            -4.8213458061218262e-01 4.1783809661865234e-01</leafValues></_></weakClassifiers></_></stages>
  <features>
    <_>
      <rects>
        <_>
          0 0 8 19 -1.</_>
        <_>
          4 0 4 19 2.</_></rects>
      <tilted>0</tilted></_>
    <_>
      <rects>
        <_>
          0 2 14 5 -1.</_>
        <_>
          7 2 7 5 2.</_></rects>
      <tilted>0</tilted></_>
    <_>
      <rects>
        <_>
          0 4 6 10 -1.</_>
        <_>
          3 4 3 10 2.</_></rects>
      <tilted>0</tilted></_>
    <_>
      <rects>
        <_>
          0 5 24 3 -1.</_>
        <_>
          12 5 12 3 2.</_></rects>
      <tilted>0</tilted></_>
    <_>
      <rects>
        <_>
          0 6 33 14 -1.</_>
        <_>
          11 6 11 14 3.</_></rects>
      <tilted>0</tilted></_>
    <_>
      <rects>
        <_>
          0 7 6 8 -1.</_>
        <_>
          3 7 3 8 2.</_></rects>
      <tilted>0</tilted></_>
    <_>
      <rects>
        <_>
          0 8 6 8 -1.</_>
        <_>
          3 8 3 8 2.</_></rects>
      <tilted>0</tilted></_>
    <_>
      <rects>
        <_>
          0 10 3 9 -1.</_>
        <_>
          0 13 3 3 3.</_></rects>
      <tilted>0</tilted></_>
    <_>
      <rects>
        <_>
          0 10 12 6 -1.</_>
        <_>
          0 10 6 3 2.</_>
        <_>
          6 13 6 3 2.</_></rects>
      <tilted>0</tilted></_>
    <_>
      <rects>
        <_>
          0 11 3 6 -1.</_>
        <_>
          0 13 3 2 3.</_></rects>
      <tilted>0</tilted></_>
    <_>
      <rects>
        <_>
          0 11 8 6 -1.</_>
        <_>
          4 11 4 6 2.</_></rects>
      <tilted>0</tilted></_>
    <_>
      <rects>
        <_>
          1 19 15 1 -1.</_>
        <_>
          6 19 5 1 3.</_></rects>
      <tilted>0</tilted></_>
    <_>
      <rects>
        <_>
          2 3 4 10 -1.</_>
        <_>
          2 8 4 5 2.</_></rects>
      <tilted>0</tilted></_>
    <_>
      <rects>
        <_>
          2 6 31 8 -1.</_>
        <_>
          2 10 31 4 2.</_></rects>
      <tilted>0</tilted></_>
    <_>
      <rects>
        <_>
          3 6 31 8 -1.</_>
        <_>
          3 10 31 4 2.</_></rects>
      <tilted>0</tilted></_>
    <_>
      <rects>
        <_>
          4 3 29 12 -1.</_>
        <_>
          4 9 29 6 2.</_></rects>
      <tilted>0</tilted></_>
    <_>
      <rects>
        <_>
          4 17 4 1 -1.</_>
        <_>
          6 17 2 1 2.</_></rects>
      <tilted>0</tilted></_>
    <_>
      <rects>
        <_>
          5 19 24 1 -1.</_>
        <_>
          13 19 8 1 3.</_></rects>
      <tilted>0</tilted></_>
    <_>
      <rects>
        <_>
          6 5 8 10 -1.</_>
        <_>
          6 10 8 5 2.</_></rects>
      <tilted>0</tilted></_>
    <_>
      <rects>
        <_>
          7 4 4 3 -1.</_>
        <_>
          7 5 4 1 3.</_></rects>
      <tilted>0</tilted></_>
    <_>
      <rects>
        <_>
          7 10 3 2 -1.</_>
        <_>
          7 11 3 1 2.</_></rects>
      <tilted>0</tilted></_>
    <_>
      <rects>
        <_>
          8 6 22 8 -1.</_>
        <_>
          8 10 22 4 2.</_></rects>
      <tilted>0</tilted></_>
    <_>
      <rects>
        <_>
          9 5 6 11 -1.</_>
        <_>
          11 5 2 11 3.</_></rects>
      <tilted>0</tilted></_>
    <_>
      <rects>
        <_>
          9 11 14 2 -1.</_>
        <_>
          9 12 14 1 2.</_></rects>
      <tilted>0</tilted></_>
    <_>
      <rects>
        <_>
          9 14 12 6 -1.</_>
        <_>
          9 17 12 3 2.</_></rects>
      <tilted>0</tilted></_>
    <_>
      <rects>
        <_>
          10 17 14 1 -1.</_>
        <_>
          17 17 7 1 2.</_></rects>
      <tilted>0</tilted></_>
    <_>
      <rects>
        <_>
          11 0 8 1 -1.</_>
        <_>
          15 0 4 1 2.</_></rects>
      <tilted>0</tilted></_>
    <_>
      <rects>
        <_>
          11 18 12 2 -1.</_>
        <_>
          17 18 6 2 2.</_></rects>
      <tilted>0</tilted></_>
    <_>
      <rects>
        <_>
          11 19 12 1 -1.</_>
        <_>
          17 19 6 1 2.</_></rects>
      <tilted>0</tilted></_>
    <_>
      <rects>
        <_>
          12 0 8 2 -1.</_>
        <_>
          12 1 8 1 2.</_></rects>
      <tilted>0</tilted></_>
    <_>
      <rects>
        <_>
          12 3 10 4 -1.</_>
        <_>
          12 5 10 2 2.</_></rects>
      <tilted>0</tilted></_>
    <_>
      <rects>
        <_>
          12 18 12 1 -1.</_>
        <_>
          16 18 4 1 3.</_></rects>
      <tilted>0</tilted></_>
    <_>
      <rects>
        <_>
          12 18 18 2 -1.</_>
        <_>
          12 19 18 1 2.</_></rects>
      <tilted>0</tilted></_>
    <_>
      <rects>
        <_>
          13 4 9 11 -1.</_>
        <_>
          16 4 3 11 3.</_></rects>
      <tilted>0</tilted></_>
    <_>
      <rects>
        <_>
          13 18 5 2 -1.</_>
        <_>
          13 19 5 1 2.</_></rects>
      <tilted>0</tilted></_>
    <_>
      <rects>
        <_>
          13 18 10 2 -1.</_>
        <_>
          18 18 5 2 2.</_></rects>
      <tilted>0</tilted></_>
    <_>
      <rects>
        <_>
          13 18 12 2 -1.</_>
        <_>
          13 19 12 1 2.</_></rects>
      <tilted>0</tilted></_>
    <_>
      <rects>
        <_>
          13 19 10 1 -1.</_>
        <_>
          18 19 5 1 2.</_></rects>
      <tilted>0</tilted></_>
    <_>
      <rects>
        <_>
          14 14 2 6 -1.</_>
        <_>
          14 17 2 3 2.</_></rects>
      <tilted>0</tilted></_>
    <_>
      <rects>
        <_>
          14 18 12 2 -1.</_>
        <_>
          20 18 6 2 2.</_></rects>
      <tilted>0</tilted></_>
    <_>
      <rects>
        <_>
          15 10 4 2 -1.</_>
        <_>
          15 11 4 1 2.</_></rects>
      <tilted>0</tilted></_>
    <_>
      <rects>
        <_>
          16 5 3 4 -1.</_>
        <_>
          17 5 1 4 3.</_></rects>
      <tilted>0</tilted></_>
    <_>
      <rects>
        <_>
          16 5 3 5 -1.</_>
        <_>
          17 5 1 5 3.</_></rects>
      <tilted>0</tilted></_>
    <_>
      <rects>
        <_>
          17 0 18 18 -1.</_>
        <_>
          26 0 9 18 2.</_></rects>
      <tilted>0</tilted></_>
    <_>
      <rects>
        <_>
          17 5 14 10 -1.</_>
        <_>
          17 10 14 5 2.</_></rects>
      <tilted>0</tilted></_>
    <_>
      <rects>
        <_>
          17 18 15 1 -1.</_>
        <_>
          22 18 5 1 3.</_></rects>
      <tilted>0</tilted></_>
    <_>
      <rects>
        <_>
          19 1 8 8 -1.</_>
        <_>
          19 1 4 4 2.</_>
        <_>
          23 5 4 4 2.</_></rects>
      <tilted>0</tilted></_>
    <_>
      <rects>
        <_>
          19 15 6 4 -1.</_>
        <_>
          19 17 6 2 2.</_></rects>
      <tilted>0</tilted></_>
    <_>
      <rects>
        <_>
          20 0 5 2 -1.</_>
        <_>
          20 1 5 1 2.</_></rects>
      <tilted>0</tilted></_>
    <_>
      <rects>
        <_>
          20 5 8 2 -1.</_>
        <_>
          20 5 4 1 2.</_>
        <_>
          24 6 4 1 2.</_></rects>
      <tilted>0</tilted></_>
    <_>
      <rects>
        <_>
          20 6 12 4 -1.</_>
        <_>
          24 6 4 4 3.</_></rects>
      <tilted>0</tilted></_>
    <_>
      <rects>
        <_>
          20 19 8 1 -1.</_>
        <_>
          24 19 4 1 2.</_></rects>
      <tilted>0</tilted></_>
    <_>
      <rects>
        <_>
          22 2 7 18 -1.</_>
        <_>
          22 11 7 9 2.</_></rects>
      <tilted>0</tilted></_>
    <_>
      <rects>
        <_>
          24 4 6 12 -1.</_>
        <_>
          24 10 6 6 2.</_></rects>
      <tilted>0</tilted></_>
    <_>
      <rects>
        <_>
          24 7 8 10 -1.</_>
        <_>
          24 7 4 5 2.</_>
        <_>
          28 12 4 5 2.</_></rects>
      <tilted>0</tilted></_>
    <_>
      <rects>
        <_>
          24 11 4 2 -1.</_>
        <_>
          24 12 4 1 2.</_></rects>
      <tilted>0</tilted></_>
    <_>
      <rects>
        <_>
          25 4 6 4 -1.</_>
        <_>
          25 4 3 2 2.</_>
        <_>
          28 6 3 2 2.</_></rects>
      <tilted>0</tilted></_>
    <_>
      <rects>
        <_>
          25 15 10 4 -1.</_>
        <_>
          25 15 5 2 2.</_>
        <_>
          30 17 5 2 2.</_></rects>
      <tilted>0</tilted></_>
    <_>
      <rects>
        <_>
          26 7 9 8 -1.</_>
        <_>
          29 7 3 8 3.</_></rects>
      <tilted>0</tilted></_>
    <_>
      <rects>
        <_>
          27 2 8 6 -1.</_>
        <_>
          31 2 4 6 2.</_></rects>
      <tilted>0</tilted></_>
    <_>
      <rects>
        <_>
          27 17 2 3 -1.</_>
        <_>
          28 17 1 3 2.</_></rects>
      <tilted>0</tilted></_>
    <_>
      <rects>
        <_>
          28 4 5 10 -1.</_>
        <_>
          28 9 5 5 2.</_></rects>
      <tilted>0</tilted></_>
    <_>
      <rects>
        <_>
          29 0 6 10 -1.</_>
        <_>
          32 0 3 10 2.</_></rects>
      <tilted>0</tilted></_>
    <_>
      <rects>
        <_>
          29 0 6 18 -1.</_>
        <_>
          32 0 3 18 2.</_></rects>
      <tilted>0</tilted></_>
    <_>
      <rects>
        <_>
          29 3 6 16 -1.</_>
        <_>
          32 3 3 16 2.</_></rects>
      <tilted>0</tilted></_>
    <_>
      <rects>
        <_>
          29 5 6 12 -1.</_>
        <_>
          32 5 3 12 2.</_></rects>
      <tilted>0</tilted></_>
    <_>
      <rects>
        <_>
          29 17 2 2 -1.</_>
        <_>
          30 17 1 2 2.</_></rects>
      <tilted>0</tilted></_>
    <_>
      <rects>
        <_>
          30 19 2 1 -1.</_>
        <_>
          31 19 1 1 2.</_></rects>
      <tilted>0</tilted></_>
    <_>
      <rects>
        <_>
          31 8 4 11 -1.</_>
        <_>
          33 8 2 11 2.</_></rects>
      <tilted>0</tilted></_>
    <_>
      <rects>
        <_>
          31 18 4 2 -1.</_>
        <_>
          33 18 2 2 2.</_></rects>
      <tilted>0</tilted></_>
    <_>
      <rects>
        <_>
          32 12 3 6 -1.</_>
        <_>
          32 14 3 2 3.</_></rects>
      <tilted>0</tilted></_>
    <_>
      <rects>
        <_>
          34 10 1 9 -1.</_>
        <_>
          34 13 1 3 3.</_></rects>
      <tilted>0</tilted></_>
    <_>
      <rects>
        <_>
          34 11 1 6 -1.</_>
        <_>
          34 13 1 2 3.</_></rects>
      <tilted>0</tilted></_>
    <_>
      <rects>
        <_>
          34 11 1 9 -1.</_>
        <_>
          34 14 1 3 3.</_></rects>
      <tilted>0</tilted></_></features></cascade>
</opencv_storage>
